digraph Tree {
node [shape=box, style="filled, rounded", color="black", fontname="helvetica"] ;
edge [fontname="helvetica"] ;
0 [label="duration <= 1.02\ngini = 0.205\nsamples = 34683\nvalue = [30657, 4026]\nclass = no", fillcolor="#e89253"] ;
1 [label="poutcome_success <= 2.615\ngini = 0.141\nsamples = 30914\nvalue = [28553, 2361]\nclass = no", fillcolor="#e78b49"] ;
0 -> 1 [labeldistance=2.5, labelangle=45, headlabel="True"] ;
3 [label="month_mar <= 4.825\ngini = 0.11\nsamples = 29922\nvalue = [28179, 1743]\nclass = no", fillcolor="#e78945"] ;
1 -> 3 ;
5 [label="duration <= 0.009\ngini = 0.102\nsamples = 29627\nvalue = [28028, 1599]\nclass = no", fillcolor="#e68844"] ;
3 -> 5 ;
7 [label="month_oct <= 3.851\ngini = 0.062\nsamples = 22480\nvalue = [21757, 723]\nclass = no", fillcolor="#e68540"] ;
5 -> 7 ;
17 [label="age <= 1.874\ngini = 0.056\nsamples = 22166\nvalue = [21527, 639]\nclass = no", fillcolor="#e6853f"] ;
7 -> 17 ;
23 [label="month_apr <= 1.763\ngini = 0.05\nsamples = 21840\nvalue = [21275, 565]\nclass = no", fillcolor="#e6843e"] ;
17 -> 23 ;
35 [label="gini = 0.042\nsamples = 20639\nvalue = [20194, 445]\nclass = no", fillcolor="#e6843d"] ;
23 -> 35 ;
36 [label="day <= 0.565\ngini = 0.18\nsamples = 1201\nvalue = [1081, 120]\nclass = no", fillcolor="#e88f4f"] ;
23 -> 36 ;
49 [label="gini = 0.13\nsamples = 999\nvalue = [929, 70]\nclass = no", fillcolor="#e78a48"] ;
36 -> 49 ;
50 [label="duration <= -0.235\ngini = 0.373\nsamples = 202\nvalue = [152, 50]\nclass = no", fillcolor="#eeaa7a"] ;
36 -> 50 ;
51 [label="gini = 0.258\nsamples = 151\nvalue = [128, 23]\nclass = no", fillcolor="#ea985d"] ;
50 -> 51 ;
52 [label="gini = 0.498\nsamples = 51\nvalue = [24, 27]\nclass = yes", fillcolor="#e9f4fc"] ;
50 -> 52 ;
24 [label="duration <= -0.512\ngini = 0.351\nsamples = 326\nvalue = [252, 74]\nclass = no", fillcolor="#eda673"] ;
17 -> 24 ;
37 [label="gini = 0.081\nsamples = 119\nvalue = [114, 5]\nclass = no", fillcolor="#e68742"] ;
24 -> 37 ;
38 [label="gini = 0.444\nsamples = 207\nvalue = [138, 69]\nclass = no", fillcolor="#f2c09c"] ;
24 -> 38 ;
18 [label="duration <= -0.518\ngini = 0.392\nsamples = 314\nvalue = [230.0, 84.0]\nclass = no", fillcolor="#eeaf81"] ;
7 -> 18 ;
33 [label="gini = 0.17\nsamples = 139\nvalue = [126, 13]\nclass = no", fillcolor="#e88e4d"] ;
18 -> 33 ;
34 [label="gini = 0.482\nsamples = 175\nvalue = [104, 71]\nclass = no", fillcolor="#f7d7c0"] ;
18 -> 34 ;
8 [label="age <= 1.874\ngini = 0.215\nsamples = 7147\nvalue = [6271, 876]\nclass = no", fillcolor="#e99355"] ;
5 -> 8 ;
13 [label="month_sep <= 4.409\ngini = 0.198\nsamples = 6953\nvalue = [6178, 775]\nclass = no", fillcolor="#e89152"] ;
8 -> 13 ;
19 [label="month_oct <= 3.851\ngini = 0.19\nsamples = 6886\nvalue = [6152, 734]\nclass = no", fillcolor="#e89051"] ;
13 -> 19 ;
21 [label="month_dec <= 7.311\ngini = 0.182\nsamples = 6806\nvalue = [6116, 690]\nclass = no", fillcolor="#e88f4f"] ;
19 -> 21 ;
29 [label="duration <= 0.699\ngini = 0.178\nsamples = 6769\nvalue = [6102, 667]\nclass = no", fillcolor="#e88f4f"] ;
21 -> 29 ;
31 [label="previous <= -0.036\ngini = 0.15\nsamples = 5571\nvalue = [5116, 455]\nclass = no", fillcolor="#e78c4b"] ;
29 -> 31 ;
39 [label="month_apr <= 1.763\ngini = 0.126\nsamples = 4726\nvalue = [4406, 320]\nclass = no", fillcolor="#e78a47"] ;
31 -> 39 ;
45 [label="gini = 0.111\nsamples = 4455\nvalue = [4192, 263]\nclass = no", fillcolor="#e78945"] ;
39 -> 45 ;
46 [label="day <= 0.565\ngini = 0.332\nsamples = 271\nvalue = [214, 57]\nclass = no", fillcolor="#eca36e"] ;
39 -> 46 ;
47 [label="gini = 0.191\nsamples = 224\nvalue = [200, 24]\nclass = no", fillcolor="#e89051"] ;
46 -> 47 ;
48 [label="gini = 0.418\nsamples = 47\nvalue = [14, 33]\nclass = yes", fillcolor="#8dc7f0"] ;
46 -> 48 ;
40 [label="month_jun <= 1.2\ngini = 0.268\nsamples = 845\nvalue = [710, 135]\nclass = no", fillcolor="#ea995f"] ;
31 -> 40 ;
41 [label="month_aug <= 1.037\ngini = 0.242\nsamples = 816\nvalue = [701, 115]\nclass = no", fillcolor="#e99659"] ;
40 -> 41 ;
43 [label="gini = 0.21\nsamples = 773\nvalue = [681, 92]\nclass = no", fillcolor="#e99254"] ;
41 -> 43 ;
44 [label="gini = 0.498\nsamples = 43\nvalue = [20.0, 23.0]\nclass = yes", fillcolor="#e5f2fc"] ;
41 -> 44 ;
42 [label="gini = 0.428\nsamples = 29\nvalue = [9, 20]\nclass = yes", fillcolor="#92c9f1"] ;
40 -> 42 ;
32 [label="gini = 0.291\nsamples = 1198\nvalue = [986.0, 212.0]\nclass = no", fillcolor="#eb9c64"] ;
29 -> 32 ;
30 [label="gini = 0.47\nsamples = 37\nvalue = [14, 23]\nclass = yes", fillcolor="#b2d9f5"] ;
21 -> 30 ;
22 [label="gini = 0.495\nsamples = 80\nvalue = [36, 44]\nclass = yes", fillcolor="#dbedfa"] ;
19 -> 22 ;
20 [label="gini = 0.475\nsamples = 67\nvalue = [26, 41]\nclass = yes", fillcolor="#b7dbf5"] ;
13 -> 20 ;
14 [label="gini = 0.499\nsamples = 194\nvalue = [93.0, 101.0]\nclass = yes", fillcolor="#eff7fd"] ;
8 -> 14 ;
6 [label="duration <= -0.328\ngini = 0.5\nsamples = 295\nvalue = [151, 144]\nclass = no", fillcolor="#fef9f6"] ;
3 -> 6 ;
27 [label="gini = 0.407\nsamples = 148\nvalue = [106, 42]\nclass = no", fillcolor="#efb387"] ;
6 -> 27 ;
28 [label="gini = 0.425\nsamples = 147\nvalue = [45, 102]\nclass = yes", fillcolor="#90c8f0"] ;
6 -> 28 ;
4 [label="duration <= -0.487\ngini = 0.47\nsamples = 992\nvalue = [374, 618]\nclass = yes", fillcolor="#b1d8f5"] ;
1 -> 4 ;
11 [label="gini = 0.327\nsamples = 194\nvalue = [154, 40]\nclass = no", fillcolor="#eca26c"] ;
4 -> 11 ;
12 [label="duration <= -0.208\ngini = 0.399\nsamples = 798\nvalue = [220, 578]\nclass = yes", fillcolor="#84c2ef"] ;
4 -> 12 ;
53 [label="gini = 0.481\nsamples = 228\nvalue = [92, 136]\nclass = yes", fillcolor="#bfdff7"] ;
12 -> 53 ;
54 [label="gini = 0.348\nsamples = 570\nvalue = [128, 442]\nclass = yes", fillcolor="#72b9ed"] ;
12 -> 54 ;
2 [label="duration <= 2.206\ngini = 0.493\nsamples = 3769\nvalue = [2104, 1665]\nclass = no", fillcolor="#fae5d6"] ;
0 -> 2 [labeldistance=2.5, labelangle=-45, headlabel="False"] ;
9 [label="poutcome_success <= 2.615\ngini = 0.463\nsamples = 2440\nvalue = [1552.0, 888.0]\nclass = no", fillcolor="#f4c9aa"] ;
2 -> 9 ;
15 [label="duration <= 1.478\ngini = 0.45\nsamples = 2332\nvalue = [1534.0, 798.0]\nclass = no", fillcolor="#f3c3a0"] ;
9 -> 15 ;
25 [label="gini = 0.397\nsamples = 1228\nvalue = [893, 335]\nclass = no", fillcolor="#efb083"] ;
15 -> 25 ;
26 [label="gini = 0.487\nsamples = 1104\nvalue = [641, 463]\nclass = no", fillcolor="#f8dcc8"] ;
15 -> 26 ;
16 [label="gini = 0.278\nsamples = 108\nvalue = [18, 90]\nclass = yes", fillcolor="#61b1ea"] ;
9 -> 16 ;
10 [label="gini = 0.486\nsamples = 1329\nvalue = [552, 777]\nclass = yes", fillcolor="#c6e3f7"] ;
2 -> 10 ;
}